2.557218075e-03
-6.641388535e-01
-5.567081273e-03
-6.135861278e-01
-1.941353083e-03
-2.541971922e+00
4.645536840e-01
-2.490794212e-01
-1.652674377e-02
3.303750604e-02
1.010967121e-01
6.601456087e-03
1.356291026e-02
-1.451157451e+00
-2.112096548e-02
1.468188167e-01
-5.696512759e-03
1.162382960e-02
1.105553284e-02
9.805018455e-02
-2.266004682e-03
-9.008699059e-01
-3.818571568e-03
8.593627214e-01
-7.741235197e-03
-4.676654935e-04
3.344812393e-01
2.297482640e-01
9.898990393e-04
-6.060904264e-01
-1.313311934e+00
2.366717756e-01
7.343415171e-02
1.158992648e-01
-4.134949446e-01
-1.183244348e+00
2.068383992e-02
7.993084192e-02
2.273686528e-01
-4.434865713e-01
-1.561172307e-02
3.748942912e-02
-2.437352017e-02
4.578661025e-01
-3.423893452e-01
-4.276627898e-01
-2.095002122e-02
-1.332867622e+00
1.231169328e-02
-1.342590332e+00
-4.858918488e-01
-9.190522134e-03
-2.062574029e-02
-2.361741662e-02
-6.289827824e-01
-9.582340717e-04
-2.092395127e-01
1.921992302e-01
-1.984858513e-02
-1.170670390e+00
1.091808081e-04
-9.696748257e-01
-3.843711615e-01
-1.301267624e+00
