-192 2411 -277 -2036 805 1809 -80 -401 2510
2538 -2979 -1288 99 -9394 3856 822 2532 -3236
-11 47 10 2129 -55 -23 232 46 -72
1410 1251 -686 234 -7553 3200 -3232 1510 1193
-807 1508 2687 -1075 -3534 -3310 7253 -311 1215
-208 261 -161 2937 396 -110 -229 312 -150
-79 400 3044 -1275 210 -932 -3318 -51 573
-362 161 411 177 7289 4500 -976 27 846
288 5150 4553 19 961 -14663 -10919 -1512 6078
-3280 -972 3418 627 -318 -1650 1560 -3268 -829
-2840 3205 5248 908 -1970 2411 -354 -2508 3437
-435 596 -2452 -1479 -2302 1508 2708 -55 289
1485 556 -2486 -3776 -2650 -1285 -6702 1096 756
-129 -440 42 2532 -477 -224 -4735 110 455
340 2781 6060 -1970 -787 3478 1753 200 2479
2661 -2021 3675 276 2483 -1652 5010 2713 -2573
594 1026 2275 -846 -1740 1966 -10373 914 978
-1256 965 345 -5484 -351 731 5938 -1893 1779
325 -2148 -1636 -2255 1137 -2343 1797 603 -2118
473 -119 709 -553 -911 288 -779 506 -116
2078 -1489 391 -2376 1181 6686 -181 1995 -1506
797 419 -2813 -239 -2323 -63 9181 1197 621
872 2338 2509 -63 670 1715 7280 969 2325
480 -317 3101 202 2156 -5987 -4348 870 -758
-1336 -673 3337 85 -3064 148 -10165 -1373 -115
-1868 373 -1803 -2225 3923 -464 -2328 -1916 130
133 -314 2053 -1047 -135 617 -2391 134 -313
277 15 1797 -710 -449 -58 -1930 223 45
-3083 876 8285 886 6186 -2675 2569 -3043 1703
-774 4197 -659 169 -6025 -8459 -556 32 3929
-1259 -236 4468 2136 -1013 -161 -2830 -1483 257
257 -363 989 39 -6499 -6205 -941 -176 -605
-2298 -933 1638 -1338 4507 -2839 -2634 -1981 -1152
-15 -71 12 -60 -200 120 -32767 -1 66
-1849 -4395 193 127 267 12466 599 -2579 -4220
2288 15 7712 2702 -1211 -1206 -6022 1183 786
-1247 768 10871 -164 -1592 1874 3316 -1252 910
1462 -714 9227 248 -3290 1490 -10605 1528 -654
-274 175 2512 -415 702 -303 -2693 -425 169
-3688 91 -1399 172 4703 -4406 1563 -2675 -184
2876 2828 1164 -3175 2909 -6745 2145 2812 1644
-1689 -2858 6088 838 1947 -1779 -2254 -2193 -2544
0 1 0 0 0 0 -2 0 0
-447 -398 4909 -468 942 847 -4932 -497 -443
748 -1577 -3261 180 -787 -264 2609 720 -1288
2061 2030 -4576 99 -1920 -996 5647 1442 1255
-1 0 0 0 0 0 -8 1 0
-1008 -273 11679 389 2780 1157 887 -1254 -21
75 -2222 3861 434 -946 4596 9711 -1 -2382
-2742 1377 1270 1594 5032 498 2828 -2774 1841
-1746 -198 -4629 163 1808 -514 4423 -1724 352
4413 -867 5309 136 -533 4693 -7364 3794 -1890
-203 -2951 2539 -5238 2358 1233 7541 -335 -3098
2469 275 9500 -575 2356 320 4746 2097 370
2110 -3269 5976 748 -5163 7363 2589 2062 -3140
17 47 224 -59 7183 -2443 -3145 -332 -89
1014 557 2026 115 131 -1846 -18938 512 -119
3968 2545 6532 1603 -2816 1152 -2796 3824 3183
-884 -3072 10868 -521 -133 -1661 3912 -344 -2705
588 -4188 2547 1880 -461 2154 920 49 -4004
-1214 -1597 107 -2839 -5864 -215 -108 -1695 -1261
5225 1713 6756 793 -10898 -4893 3409 4544 2121
-1200 -2 10851 434 272 -726 -412 -1372 108
-142 49 -5297 222 294 76 -1889 62 63
